<?xml version="1.0"?>
<opencv_storage>
<cascade>
  <stageType>BOOST</stageType>
  <featureType>HAAR</featureType>
  <height>65</height>
  <width>30</width>
  <stageParams>
    <boostType>GAB</boostType>
    <minHitRate>9.9500000476837158e-01</minHitRate>
    <maxFalseAlarm>5.0000000000000000e-01</maxFalseAlarm>
    <weightTrimRate>9.4999999999999996e-01</weightTrimRate>
    <maxDepth>1</maxDepth>
    <maxWeakCount>100</maxWeakCount></stageParams>
  <featureParams>
    <maxCatCount>0</maxCatCount>
    <featSize>1</featSize>
    <mode>BASIC</mode></featureParams>
  <stageNum>8</stageNum>
  <stages>
    <!-- stage 0 -->
    <_>
      <maxWeakCount>1</maxWeakCount>
      <stageThreshold>8.6861312389373779e-01</stageThreshold>
      <weakClassifiers>
        <_>
          <internalNodes>
            0 -1 16 2.0826753228902817e-02</internalNodes>
          <leafValues>
            -9.7953963279724121e-01 8.6861312389373779e-01</leafValues></_></weakClassifiers></_>
    <!-- stage 1 -->
    <_>
      <maxWeakCount>4</maxWeakCount>
      <stageThreshold>-1.7437531054019928e-01</stageThreshold>
      <weakClassifiers>
        <_>
          <internalNodes>
            0 -1 2 1.8542325496673584e-01</internalNodes>
          <leafValues>
            -5.7028114795684814e-01 8.6150234937667847e-01</leafValues></_>
        <_>
          <internalNodes>
            0 -1 22 7.5881229713559151e-04</internalNodes>
          <leafValues>
            -9.1143894195556641e-01 5.5817019939422607e-01</leafValues></_>
        <_>
          <internalNodes>
            0 -1 13 3.7044603377580643e-03</internalNodes>
          <leafValues>
            -4.8061382770538330e-01 7.2893011569976807e-01</leafValues></_>
        <_>
          <internalNodes>
            0 -1 30 -2.2039651230443269e-04</internalNodes>
          <leafValues>
            -9.8787420988082886e-01 3.5617512464523315e-01</leafValues></_></weakClassifiers></_>
    <!-- stage 2 -->
    <_>
      <maxWeakCount>1</maxWeakCount>
      <stageThreshold>6.2647324800491333e-01</stageThreshold>
      <weakClassifiers>
        <_>
          <internalNodes>
            0 -1 31 -2.8597604250535369e-04</internalNodes>
          <leafValues>
            -9.7570848464965820e-01 6.2647324800491333e-01</leafValues></_></weakClassifiers></_>
    <!-- stage 3 -->
    <_>
      <maxWeakCount>2</maxWeakCount>
      <stageThreshold>-9.0232089161872864e-02</stageThreshold>
      <weakClassifiers>
        <_>
          <internalNodes>
            0 -1 31 4.2859548557316884e-05</internalNodes>
          <leafValues>
            7.1707314252853394e-01 -8.7692308425903320e-01</leafValues></_>
        <_>
          <internalNodes>
            0 -1 8 5.0475508905947208e-03</internalNodes>
          <leafValues>
            -5.6557166576385498e-01 7.8669100999832153e-01</leafValues></_></weakClassifiers></_>
    <!-- stage 4 -->
    <_>
      <maxWeakCount>6</maxWeakCount>
      <stageThreshold>-7.2819238901138306e-01</stageThreshold>
      <weakClassifiers>
        <_>
          <internalNodes>
            0 -1 24 5.3382106125354767e-03</internalNodes>
          <leafValues>
            -6.3783782720565796e-01 6.9999998807907104e-01</leafValues></_>
        <_>
          <internalNodes>
            0 -1 17 3.2478675711899996e-03</internalNodes>
          <leafValues>
            -4.1053047776222229e-01 7.2826743125915527e-01</leafValues></_>
        <_>
          <internalNodes>
            0 -1 19 -7.3573738336563110e-03</internalNodes>
          <leafValues>
            -9.0724599361419678e-01 3.6568942666053772e-01</leafValues></_>
        <_>
          <internalNodes>
            0 -1 20 -1.1186532676219940e-02</internalNodes>
          <leafValues>
            6.3706731796264648e-01 -4.8420187830924988e-01</leafValues></_>
        <_>
          <internalNodes>
            0 -1 21 2.3317853920161724e-03</internalNodes>
          <leafValues>
            -8.2903367280960083e-01 3.3627551794052124e-01</leafValues></_>
        <_>
          <internalNodes>
            0 -1 29 1.1914891729247756e-05</internalNodes>
          <leafValues>
            2.3655037581920624e-01 -8.1795471906661987e-01</leafValues></_></weakClassifiers></_>
    <!-- stage 5 -->
    <_>
      <maxWeakCount>7</maxWeakCount>
      <stageThreshold>-9.7249490022659302e-01</stageThreshold>
      <weakClassifiers>
        <_>
          <internalNodes>
            0 -1 32 -2.0950420293956995e-03</internalNodes>
          <leafValues>
            6.9361704587936401e-01 -4.9268293380737305e-01</leafValues></_>
        <_>
          <internalNodes>
            0 -1 18 1.0439374018460512e-03</internalNodes>
          <leafValues>
            -4.6886733174324036e-01 5.8130186796188354e-01</leafValues></_>
        <_>
          <internalNodes>
            0 -1 26 -6.8051122070755810e-06</internalNodes>
          <leafValues>
            3.3344742655754089e-01 -7.8385388851165771e-01</leafValues></_>
        <_>
          <internalNodes>
            0 -1 25 -2.8929460677318275e-04</internalNodes>
          <leafValues>
            -8.3279675245285034e-01 3.3946317434310913e-01</leafValues></_>
        <_>
          <internalNodes>
            0 -1 0 2.8125688433647156e-01</internalNodes>
          <leafValues>
            -3.7399411201477051e-01 7.5994300842285156e-01</leafValues></_>
        <_>
          <internalNodes>
            0 -1 6 -3.1024439522298053e-05</internalNodes>
          <leafValues>
            4.1756370663642883e-01 -5.9035116434097290e-01</leafValues></_>
        <_>
          <internalNodes>
            0 -1 28 8.1971797044388950e-05</internalNodes>
          <leafValues>
            2.8049004077911377e-01 -9.3456727266311646e-01</leafValues></_></weakClassifiers></_>
    <!-- stage 6 -->
    <_>
      <maxWeakCount>7</maxWeakCount>
      <stageThreshold>-9.4289690256118774e-01</stageThreshold>
      <weakClassifiers>
        <_>
          <internalNodes>
            0 -1 9 -4.4473782181739807e-03</internalNodes>
          <leafValues>
            -9.0049749612808228e-01 5.4917317628860474e-01</leafValues></_>
        <_>
          <internalNodes>
            0 -1 1 3.5693147778511047e-01</internalNodes>
          <leafValues>
            -4.4888427853584290e-01 6.6785132884979248e-01</leafValues></_>
        <_>
          <internalNodes>
            0 -1 10 -2.0341045456007123e-04</internalNodes>
          <leafValues>
            4.7956946492195129e-01 -7.4315142631530762e-01</leafValues></_>
        <_>
          <internalNodes>
            0 -1 3 7.7312677167356014e-03</internalNodes>
          <leafValues>
            -4.7167259454727173e-01 5.5538767576217651e-01</leafValues></_>
        <_>
          <internalNodes>
            0 -1 27 -3.5040331567870453e-05</internalNodes>
          <leafValues>
            3.1298643350601196e-01 -7.9603058099746704e-01</leafValues></_>
        <_>
          <internalNodes>
            0 -1 15 1.0984260588884354e-03</internalNodes>
          <leafValues>
            2.7191716432571411e-01 -7.7026730775833130e-01</leafValues></_>
        <_>
          <internalNodes>
            0 -1 23 2.4772272445261478e-03</internalNodes>
          <leafValues>
            -4.1326534748077393e-01 6.9732713699340820e-01</leafValues></_></weakClassifiers></_>
    <!-- stage 7 -->
    <_>
      <maxWeakCount>6</maxWeakCount>
      <stageThreshold>-8.2762873172760010e-01</stageThreshold>
      <weakClassifiers>
        <_>
          <internalNodes>
            0 -1 5 -1.1384242679923773e-03</internalNodes>
          <leafValues>
            -9.3296086788177490e-01 5.2690011262893677e-01</leafValues></_>
        <_>
          <internalNodes>
            0 -1 14 9.5094516873359680e-03</internalNodes>
          <leafValues>
            -4.4836065173149109e-01 7.2164922952651978e-01</leafValues></_>
        <_>
          <internalNodes>
            0 -1 12 1.7014713957905769e-03</internalNodes>
          <leafValues>
            4.5385822653770447e-01 -8.2434082031250000e-01</leafValues></_>
        <_>
          <internalNodes>
            0 -1 4 -3.1344121089205146e-04</internalNodes>
          <leafValues>
            3.1146812438964844e-01 -6.3334459066390991e-01</leafValues></_>
        <_>
          <internalNodes>
            0 -1 7 -9.1461222618818283e-03</internalNodes>
          <leafValues>
            5.3405207395553589e-01 -4.7626128792762756e-01</leafValues></_>
        <_>
          <internalNodes>
            0 -1 11 1.7470496241003275e-03</internalNodes>
          <leafValues>
            1.9912709295749664e-01 -8.5937750339508057e-01</leafValues></_></weakClassifiers></_></stages>
  <features>
    <_>
      <rects>
        <_>
          0 4 30 40 -1.</_>
        <_>
          10 4 10 40 3.</_></rects>
      <tilted>0</tilted></_>
    <_>
      <rects>
        <_>
          3 4 27 61 -1.</_>
        <_>
          12 4 9 61 3.</_></rects>
      <tilted>0</tilted></_>
    <_>
      <rects>
        <_>
          6 3 24 41 -1.</_>
        <_>
          14 3 8 41 3.</_></rects>
      <tilted>0</tilted></_>
    <_>
      <rects>
        <_>
          10 0 10 6 -1.</_>
        <_>
          10 3 10 3 2.</_></rects>
      <tilted>0</tilted></_>
    <_>
      <rects>
        <_>
          10 13 2 22 -1.</_>
        <_>
          10 13 1 11 2.</_>
        <_>
          11 24 1 11 2.</_></rects>
      <tilted>0</tilted></_>
    <_>
      <rects>
        <_>
          10 29 6 5 -1.</_>
        <_>
          13 29 3 5 2.</_></rects>
      <tilted>0</tilted></_>
    <_>
      <rects>
        <_>
          10 31 2 1 -1.</_>
        <_>
          11 31 1 1 2.</_></rects>
      <tilted>0</tilted></_>
    <_>
      <rects>
        <_>
          10 55 12 10 -1.</_>
        <_>
          10 60 12 5 2.</_></rects>
      <tilted>0</tilted></_>
    <_>
      <rects>
        <_>
          11 1 10 6 -1.</_>
        <_>
          11 4 10 3 2.</_></rects>
      <tilted>0</tilted></_>
    <_>
      <rects>
        <_>
          11 18 2 18 -1.</_>
        <_>
          11 27 2 9 2.</_></rects>
      <tilted>0</tilted></_>
    <_>
      <rects>
        <_>
          11 18 2 22 -1.</_>
        <_>
          11 29 2 11 2.</_></rects>
      <tilted>0</tilted></_>
    <_>
      <rects>
        <_>
          11 19 6 12 -1.</_>
        <_>
          11 19 3 6 2.</_>
        <_>
          14 25 3 6 2.</_></rects>
      <tilted>0</tilted></_>
    <_>
      <rects>
        <_>
          11 25 4 8 -1.</_>
        <_>
          13 25 2 8 2.</_></rects>
      <tilted>0</tilted></_>
    <_>
      <rects>
        <_>
          12 1 6 6 -1.</_>
        <_>
          12 4 6 3 2.</_></rects>
      <tilted>0</tilted></_>
    <_>
      <rects>
        <_>
          12 1 11 6 -1.</_>
        <_>
          12 4 11 3 2.</_></rects>
      <tilted>0</tilted></_>
    <_>
      <rects>
        <_>
          12 24 8 12 -1.</_>
        <_>
          12 28 8 4 3.</_></rects>
      <tilted>0</tilted></_>
    <_>
      <rects>
        <_>
          12 28 10 12 -1.</_>
        <_>
          17 28 5 12 2.</_></rects>
      <tilted>0</tilted></_>
    <_>
      <rects>
        <_>
          13 0 4 6 -1.</_>
        <_>
          13 3 4 3 2.</_></rects>
      <tilted>0</tilted></_>
    <_>
      <rects>
        <_>
          13 2 4 6 -1.</_>
        <_>
          13 4 4 2 3.</_></rects>
      <tilted>0</tilted></_>
    <_>
      <rects>
        <_>
          13 9 9 27 -1.</_>
        <_>
          13 18 9 9 3.</_></rects>
      <tilted>0</tilted></_>
    <_>
      <rects>
        <_>
          14 53 10 12 -1.</_>
        <_>
          14 59 10 6 2.</_></rects>
      <tilted>0</tilted></_>
    <_>
      <rects>
        <_>
          16 22 2 19 -1.</_>
        <_>
          17 22 1 19 2.</_></rects>
      <tilted>0</tilted></_>
    <_>
      <rects>
        <_>
          17 26 3 14 -1.</_>
        <_>
          18 26 1 14 3.</_></rects>
      <tilted>0</tilted></_>
    <_>
      <rects>
        <_>
          18 10 9 2 -1.</_>
        <_>
          21 10 3 2 3.</_></rects>
      <tilted>0</tilted></_>
    <_>
      <rects>
        <_>
          18 28 6 14 -1.</_>
        <_>
          20 28 2 14 3.</_></rects>
      <tilted>0</tilted></_>
    <_>
      <rects>
        <_>
          19 25 1 14 -1.</_>
        <_>
          19 32 1 7 2.</_></rects>
      <tilted>0</tilted></_>
    <_>
      <rects>
        <_>
          19 27 2 10 -1.</_>
        <_>
          19 32 2 5 2.</_></rects>
      <tilted>0</tilted></_>
    <_>
      <rects>
        <_>
          19 28 2 10 -1.</_>
        <_>
          19 33 2 5 2.</_></rects>
      <tilted>0</tilted></_>
    <_>
      <rects>
        <_>
          19 33 3 3 -1.</_>
        <_>
          19 34 3 1 3.</_></rects>
      <tilted>0</tilted></_>
    <_>
      <rects>
        <_>
          19 34 3 2 -1.</_>
        <_>
          19 35 3 1 2.</_></rects>
      <tilted>0</tilted></_>
    <_>
      <rects>
        <_>
          20 18 1 21 -1.</_>
        <_>
          20 25 1 7 3.</_></rects>
      <tilted>0</tilted></_>
    <_>
      <rects>
        <_>
          20 28 1 10 -1.</_>
        <_>
          20 33 1 5 2.</_></rects>
      <tilted>0</tilted></_>
    <_>
      <rects>
        <_>
          22 25 2 16 -1.</_>
        <_>
          23 25 1 16 2.</_></rects>
      <tilted>0</tilted></_></features></cascade>
</opencv_storage>
