<?xml version="1.0"?>
<opencv_storage>
<stage7>
  <maxWeakCount>14</maxWeakCount>
  <stageThreshold>-8.2066017389297485e-01</stageThreshold>
  <weakClassifiers>
    <_>
      <internalNodes>
        0 -1 13456 -1.1045498773455620e-02</internalNodes>
      <leafValues>
        -4.8633879423141479e-01 4.6186804771423340e-01</leafValues></_>
    <_>
      <internalNodes>
        0 -1 8956 8.4075242280960083e-02</internalNodes>
      <leafValues>
        -3.4488087892532349e-01 2.9320847988128662e-01</leafValues></_>
    <_>
      <internalNodes>
        0 -1 20598 1.0209191590547562e-02</internalNodes>
      <leafValues>
        1.6298058629035950e-01 -7.8038245439529419e-01</leafValues></_>
    <_>
      <internalNodes>
        0 -1 14625 -4.6727284789085388e-03</internalNodes>
      <leafValues>
        3.1076368689537048e-01 -3.5093635320663452e-01</leafValues></_>
    <_>
      <internalNodes>
        0 -1 31603 -5.9672442148439586e-05</internalNodes>
      <leafValues>
        2.5819832086563110e-01 -3.6152261495590210e-01</leafValues></_>
    <_>
      <internalNodes>
        0 -1 10854 -5.2181850187480450e-03</internalNodes>
      <leafValues>
        3.0043992400169373e-01 -2.8547215461730957e-01</leafValues></_>
    <_>
      <internalNodes>
        0 -1 21753 3.9642341434955597e-02</internalNodes>
      <leafValues>
        -1.9632013142108917e-01 5.3925710916519165e-01</leafValues></_>
    <_>
      <internalNodes>
        0 -1 21763 -3.4512337297201157e-02</internalNodes>
      <leafValues>
        6.5278965234756470e-01 -2.5051164627075195e-01</leafValues></_>
    <_>
      <internalNodes>
        0 -1 27000 -2.0088285207748413e-02</internalNodes>
      <leafValues>
        3.8079738616943359e-01 -2.4363116919994354e-01</leafValues></_>
    <_>
      <internalNodes>
        0 -1 21577 -4.8767510801553726e-02</internalNodes>
      <leafValues>
        5.8582091331481934e-01 -1.8290935456752777e-01</leafValues></_>
    <_>
      <internalNodes>
        0 -1 13314 -1.7396831512451172e-01</internalNodes>
      <leafValues>
        -6.5813964605331421e-01 1.8481510877609253e-01</leafValues></_>
    <_>
      <internalNodes>
        0 -1 35771 7.7560981735587120e-03</internalNodes>
      <leafValues>
        7.6809681951999664e-02 -8.0892986059188843e-01</leafValues></_>
    <_>
      <internalNodes>
        0 -1 26813 -2.8306577587500215e-04</internalNodes>
      <leafValues>
        -4.1122984886169434e-01 1.9953724741935730e-01</leafValues></_>
    <_>
      <internalNodes>
        0 -1 31460 2.5388442445546389e-03</internalNodes>
      <leafValues>
        -3.4223735332489014e-01 2.4225731194019318e-01</leafValues></_></weakClassifiers></stage7>
</opencv_storage>
