<?xml version="1.0"?>
<opencv_storage>
<stage2>
  <maxWeakCount>8</maxWeakCount>
  <stageThreshold>-8.7467527389526367e-01</stageThreshold>
  <weakClassifiers>
    <_>
      <internalNodes>
        0 -1 25981 4.5007127337157726e-03</internalNodes>
      <leafValues>
        5.0594228506088257e-01 -8.4883719682693481e-01</leafValues></_>
    <_>
      <internalNodes>
        0 -1 42141 8.3096046000719070e-03</internalNodes>
      <leafValues>
        -3.7135130167007446e-01 5.8174383640289307e-01</leafValues></_>
    <_>
      <internalNodes>
        0 -1 3576 2.6821851730346680e-02</internalNodes>
      <leafValues>
        -3.6086153984069824e-01 6.0733205080032349e-01</leafValues></_>
    <_>
      <internalNodes>
        0 -1 8956 8.6755573749542236e-02</internalNodes>
      <leafValues>
        -3.9976650476455688e-01 4.1624188423156738e-01</leafValues></_>
    <_>
      <internalNodes>
        0 -1 13888 5.4822736419737339e-03</internalNodes>
      <leafValues>
        -3.1554976105690002e-01 5.5625164508819580e-01</leafValues></_>
    <_>
      <internalNodes>
        0 -1 31872 3.0969544313848019e-03</internalNodes>
      <leafValues>
        -5.5164891481399536e-01 3.0541697144508362e-01</leafValues></_>
    <_>
      <internalNodes>
        0 -1 38739 -9.2730636242777109e-04</internalNodes>
      <leafValues>
        3.7287974357604980e-01 -4.1555556654930115e-01</leafValues></_>
    <_>
      <internalNodes>
        0 -1 32057 2.3489642888307571e-02</internalNodes>
      <leafValues>
        1.7705017328262329e-01 -8.9165139198303223e-01</leafValues></_></weakClassifiers></stage2>
</opencv_storage>
