<?xml version="1.0"?>
<opencv_storage>
<stage1>
  <maxWeakCount>10</maxWeakCount>
  <stageThreshold>-1.1706225872039795e+00</stageThreshold>
  <weakClassifiers>
    <_>
      <internalNodes>
        0 -1 31529 -7.6256841421127319e-03</internalNodes>
      <leafValues>
        6.0111320018768311e-01 -7.2794115543365479e-01</leafValues></_>
    <_>
      <internalNodes>
        0 -1 4783 1.1587353423237801e-02</internalNodes>
      <leafValues>
        -4.7368794679641724e-01 5.4559081792831421e-01</leafValues></_>
    <_>
      <internalNodes>
        0 -1 26540 -1.7675419803708792e-03</internalNodes>
      <leafValues>
        -8.2821208238601685e-01 2.6259171962738037e-01</leafValues></_>
    <_>
      <internalNodes>
        0 -1 39379 -3.0152160674333572e-02</internalNodes>
      <leafValues>
        6.2231671810150146e-01 -3.4603509306907654e-01</leafValues></_>
    <_>
      <internalNodes>
        0 -1 12372 1.2210041284561157e-02</internalNodes>
      <leafValues>
        -2.2681190073490143e-01 7.0095735788345337e-01</leafValues></_>
    <_>
      <internalNodes>
        0 -1 27170 -4.1469633579254150e-03</internalNodes>
      <leafValues>
        4.6801027655601501e-01 -3.2403227686882019e-01</leafValues></_>
    <_>
      <internalNodes>
        0 -1 40059 -3.3041290938854218e-02</internalNodes>
      <leafValues>
        4.7505107522010803e-01 -3.6332228779792786e-01</leafValues></_>
    <_>
      <internalNodes>
        0 -1 26318 1.9675426185131073e-02</internalNodes>
      <leafValues>
        2.1107330918312073e-01 -8.2080817222595215e-01</leafValues></_>
    <_>
      <internalNodes>
        0 -1 14636 9.2970123514533043e-03</internalNodes>
      <leafValues>
        -3.7853783369064331e-01 3.9876353740692139e-01</leafValues></_>
    <_>
      <internalNodes>
        0 -1 26724 4.1087460704147816e-04</internalNodes>
      <leafValues>
        -3.3741328120231628e-01 4.0403836965560913e-01</leafValues></_></weakClassifiers></stage1>
</opencv_storage>
