<?xml version="1.0"?>
<opencv_storage>
<stage6>
  <maxWeakCount>17</maxWeakCount>
  <stageThreshold>-9.9146771430969238e-01</stageThreshold>
  <weakClassifiers>
    <_>
      <internalNodes>
        0 -1 25967 -2.3297362029552460e-02</internalNodes>
      <leafValues>
        4.7695034742355347e-01 -3.9639639854431152e-01</leafValues></_>
    <_>
      <internalNodes>
        0 -1 5147 1.1622814461588860e-02</internalNodes>
      <leafValues>
        -3.5283729434013367e-01 3.0547094345092773e-01</leafValues></_>
    <_>
      <internalNodes>
        0 -1 31822 1.6975906328298151e-04</internalNodes>
      <leafValues>
        -6.1091232299804688e-01 1.7502531409263611e-01</leafValues></_>
    <_>
      <internalNodes>
        0 -1 26677 -7.7609117142856121e-03</internalNodes>
      <leafValues>
        -7.3020207881927490e-01 1.4679008722305298e-01</leafValues></_>
    <_>
      <internalNodes>
        0 -1 42141 1.1616998352110386e-02</internalNodes>
      <leafValues>
        -2.5895190238952637e-01 3.7568381428718567e-01</leafValues></_>
    <_>
      <internalNodes>
        0 -1 31670 2.8961061034351587e-03</internalNodes>
      <leafValues>
        -4.3767139315605164e-01 2.6799488067626953e-01</leafValues></_>
    <_>
      <internalNodes>
        0 -1 31173 -2.1339405793696642e-03</internalNodes>
      <leafValues>
        2.2292263805866241e-01 -4.4282355904579163e-01</leafValues></_>
    <_>
      <internalNodes>
        0 -1 32047 7.4813640676438808e-03</internalNodes>
      <leafValues>
        1.4751175045967102e-01 -8.4541511535644531e-01</leafValues></_>
    <_>
      <internalNodes>
        0 -1 13893 7.7222390100359917e-03</internalNodes>
      <leafValues>
        -2.9742577672004700e-01 3.1822937726974487e-01</leafValues></_>
    <_>
      <internalNodes>
        0 -1 39674 -2.7089165523648262e-03</internalNodes>
      <leafValues>
        -8.2567936182022095e-01 9.9489413201808929e-02</leafValues></_>
    <_>
      <internalNodes>
        0 -1 32544 -4.9405905883759260e-04</internalNodes>
      <leafValues>
        -3.8415396213531494e-01 2.3199994862079620e-01</leafValues></_>
    <_>
      <internalNodes>
        0 -1 26483 9.6468515694141388e-03</internalNodes>
      <leafValues>
        -1.8584389984607697e-01 5.4424071311950684e-01</leafValues></_>
    <_>
      <internalNodes>
        0 -1 21381 -1.8277384340763092e-02</internalNodes>
      <leafValues>
        3.0890068411827087e-01 -3.2684794068336487e-01</leafValues></_>
    <_>
      <internalNodes>
        0 -1 33668 6.7147023975849152e-02</internalNodes>
      <leafValues>
        -1.6841568052768707e-01 5.7935076951980591e-01</leafValues></_>
    <_>
      <internalNodes>
        0 -1 21013 -9.4798853388056159e-04</internalNodes>
      <leafValues>
        2.8132906556129456e-01 -3.1746089458465576e-01</leafValues></_>
    <_>
      <internalNodes>
        0 -1 39273 -5.6181587278842926e-02</internalNodes>
      <leafValues>
        4.5597970485687256e-01 -2.1496817469596863e-01</leafValues></_>
    <_>
      <internalNodes>
        0 -1 38894 -1.1070549953728914e-03</internalNodes>
      <leafValues>
        3.0290243029594421e-01 -3.2360318303108215e-01</leafValues></_></weakClassifiers></stage6>
</opencv_storage>
