<?xml version="1.0"?>
<opencv_storage>
<stage6>
  <maxWeakCount>7</maxWeakCount>
  <stageThreshold>-9.4289690256118774e-01</stageThreshold>
  <weakClassifiers>
    <_>
      <internalNodes>
        0 -1 1137760 -4.4473782181739807e-03</internalNodes>
      <leafValues>
        -9.0049749612808228e-01 5.4917317628860474e-01</leafValues></_>
    <_>
      <internalNodes>
        0 -1 364552 3.5693147778511047e-01</internalNodes>
      <leafValues>
        -4.4888427853584290e-01 6.6785132884979248e-01</leafValues></_>
    <_>
      <internalNodes>
        0 -1 1137770 -2.0341045456007123e-04</internalNodes>
      <leafValues>
        4.7956946492195129e-01 -7.4315142631530762e-01</leafValues></_>
    <_>
      <internalNodes>
        0 -1 1023759 7.7312677167356014e-03</internalNodes>
      <leafValues>
        -4.7167259454727173e-01 5.5538767576217651e-01</leafValues></_>
    <_>
      <internalNodes>
        0 -1 1622745 -3.5040331567870453e-05</internalNodes>
      <leafValues>
        3.1298643350601196e-01 -7.9603058099746704e-01</leafValues></_>
    <_>
      <internalNodes>
        0 -1 1221690 1.0984260588884354e-03</internalNodes>
      <leafValues>
        2.7191716432571411e-01 -7.7026730775833130e-01</leafValues></_>
    <_>
      <internalNodes>
        0 -1 1559884 2.4772272445261478e-03</internalNodes>
      <leafValues>
        -4.1326534748077393e-01 6.9732713699340820e-01</leafValues></_></weakClassifiers></stage6>
</opencv_storage>
