<?xml version="1.0"?>
<opencv_storage>
<stage4>
  <maxWeakCount>6</maxWeakCount>
  <stageThreshold>-7.2819238901138306e-01</stageThreshold>
  <weakClassifiers>
    <_>
      <internalNodes>
        0 -1 1578799 5.3382106125354767e-03</internalNodes>
      <leafValues>
        -6.3783782720565796e-01 6.9999998807907104e-01</leafValues></_>
    <_>
      <internalNodes>
        0 -1 1250597 3.2478675711899996e-03</internalNodes>
      <leafValues>
        -4.1053047776222229e-01 7.2826743125915527e-01</leafValues></_>
    <_>
      <internalNodes>
        0 -1 1268275 -7.3573738336563110e-03</internalNodes>
      <leafValues>
        -9.0724599361419678e-01 3.6568942666053772e-01</leafValues></_>
    <_>
      <internalNodes>
        0 -1 1378397 -1.1186532676219940e-02</internalNodes>
      <leafValues>
        6.3706731796264648e-01 -4.8420187830924988e-01</leafValues></_>
    <_>
      <internalNodes>
        0 -1 1470928 2.3317853920161724e-03</internalNodes>
      <leafValues>
        -8.2903367280960083e-01 3.3627551794052124e-01</leafValues></_>
    <_>
      <internalNodes>
        0 -1 1626832 1.1914891729247756e-05</internalNodes>
      <leafValues>
        2.3655037581920624e-01 -8.1795471906661987e-01</leafValues></_></weakClassifiers></stage4>
</opencv_storage>
