<?xml version="1.0"?>
<opencv_storage>
<stage7>
  <maxWeakCount>6</maxWeakCount>
  <stageThreshold>-8.2762873172760010e-01</stageThreshold>
  <weakClassifiers>
    <_>
      <internalNodes>
        0 -1 1077554 -1.1384242679923773e-03</internalNodes>
      <leafValues>
        -9.3296086788177490e-01 5.2690011262893677e-01</leafValues></_>
    <_>
      <internalNodes>
        0 -1 1180779 9.5094516873359680e-03</internalNodes>
      <leafValues>
        -4.4836065173149109e-01 7.2164922952651978e-01</leafValues></_>
    <_>
      <internalNodes>
        0 -1 1148508 1.7014713957905769e-03</internalNodes>
      <leafValues>
        4.5385822653770447e-01 -8.2434082031250000e-01</leafValues></_>
    <_>
      <internalNodes>
        0 -1 1050756 -3.1344121089205146e-04</internalNodes>
      <leafValues>
        3.1146812438964844e-01 -6.3334459066390991e-01</leafValues></_>
    <_>
      <internalNodes>
        0 -1 1100245 -9.1461222618818283e-03</internalNodes>
      <leafValues>
        5.3405207395553589e-01 -4.7626128792762756e-01</leafValues></_>
    <_>
      <internalNodes>
        0 -1 1139533 1.7470496241003275e-03</internalNodes>
      <leafValues>
        1.9912709295749664e-01 -8.5937750339508057e-01</leafValues></_></weakClassifiers></stage7>
</opencv_storage>
