<?xml version="1.0"?>
<opencv_storage>
<stage5>
  <maxWeakCount>7</maxWeakCount>
  <stageThreshold>-9.7249490022659302e-01</stageThreshold>
  <weakClassifiers>
    <_>
      <internalNodes>
        0 -1 1730409 -2.0950420293956995e-03</internalNodes>
      <leafValues>
        6.9361704587936401e-01 -4.9268293380737305e-01</leafValues></_>
    <_>
      <internalNodes>
        0 -1 1254567 1.0439374018460512e-03</internalNodes>
      <leafValues>
        -4.6886733174324036e-01 5.8130186796188354e-01</leafValues></_>
    <_>
      <internalNodes>
        0 -1 1622009 -6.8051122070755810e-06</internalNodes>
      <leafValues>
        3.3344742655754089e-01 -7.8385388851165771e-01</leafValues></_>
    <_>
      <internalNodes>
        0 -1 1620351 -2.8929460677318275e-04</internalNodes>
      <leafValues>
        -8.3279675245285034e-01 3.3946317434310913e-01</leafValues></_>
    <_>
      <internalNodes>
        0 -1 16487 2.8125688433647156e-01</internalNodes>
      <leafValues>
        -3.7399411201477051e-01 7.5994300842285156e-01</leafValues></_>
    <_>
      <internalNodes>
        0 -1 1079940 -3.1024439522298053e-05</internalNodes>
      <leafValues>
        4.1756370663642883e-01 -5.9035116434097290e-01</leafValues></_>
    <_>
      <internalNodes>
        0 -1 1626220 8.1971797044388950e-05</internalNodes>
      <leafValues>
        2.8049004077911377e-01 -9.3456727266311646e-01</leafValues></_></weakClassifiers></stage5>
</opencv_storage>
